{
  "lam": 0,
  "learn_rate": 1e-09,
  "epsilon": 0.5,
  "iterations": 29,
  "convergence": false,
  "exploding": true,
  "labeled_weights": [
    "dummy",
    "bathrooms",
    "bedrooms",
    "condition_2",
    "condition_3",
    "condition_4",
    "condition_5",
    "day",
    "floors",
    "grade_10",
    "grade_11",
    "grade_12",
    "grade_13",
    "grade_5",
    "grade_6",
    "grade_7",
    "grade_8",
    "grade_9",
    "lat",
    "long",
    "month",
    "sqft_above",
    "sqft_basement",
    "sqft_living",
    "sqft_living15",
    "sqft_lot",
    "sqft_lot15",
    "view",
    "waterfront_1",
    "year",
    "yr_built",
    "yr_renovated",
    "zipcode"
  ],
  "weights": [
    -1.6866101700802334e+140,
    -3.5870290413718417e+140,
    -5.698086455097308e+140,
    -1.314448565753614e+138,
    -1.1004438404681632e+140,
    -4.350049464918464e+139,
    -1.3581057415419727e+139,
    -2.6668152085962762e+141,
    -2.535417055238047e+140,
    -9.597844844413147e+138,
    -3.8811327328087986e+138,
    -7.0895228818856144e+137,
    -8.740941100758558e+136,
    -1.8294647687633522e+138,
    -1.5643731067572216e+139,
    -6.901381080068534e+139,
    -4.749813867772365e+139,
    -2.0215818382758847e+139,
    -8.021236097554954e+141,
    2.0611925532009038e+142,
    -1.1112447277601413e+141,
    -3.0578468579520294e+143,
    -4.851454562072041e+142,
    -3.542992314159234e+143,
    -3.386973837190101e+143,
    -3.337349586071828e+144,
    -2.6522770824465573e+144,
    -4.007997186995552e+139,
    -1.2310792538555875e+138,
    -3.397370549442392e+143,
    -3.3248938645390405e+143,
    -1.3763987136933203e+142,
    -1.6541838396388685e+145
  ],
  "sse": [
    1.381054170114312e+24,
    1.41527511677135e+34,
    1.4543776241150453e+44,
    1.4947452957915854e+54,
    1.5362418622770067e+64,
    1.578890827488333e+74,
    1.6227238259029429e+84,
    1.6677737121427908e+94,
    1.7140742685692485e+104,
    1.7616602161207723e+114,
    1.8105672396875006e+124,
    1.8608320148412365e+134,
    1.9124922353371068e+144,
    1.965586641380291e+154,
    2.0201550486774452e+164,
    NaN,
    NaN,
    NaN,
    NaN,
    NaN,
    NaN,
    NaN,
    NaN,
    NaN,
    NaN,
    NaN,
    NaN,
    NaN,
    NaN
  ],
  "gradient_norm_diff": [
    117383404416317.42,
    1.181853762393584e+19,
    1.1977792502736952e+24,
    1.2142751669968888e+29,
    1.2310143210699981e+34,
    1.247984953558305e+39,
    1.2651895740364512e+44,
    1.2826313775054274e+49,
    1.3003136323648757e+54,
    1.3182396533961486e+59,
    1.336412801137618e+64,
    1.354836482458463e+69,
    1.3735141511948164e+74,
    1.3924493087971265e+79,
    1.4116455049865613e+84,
    1.4311063384204656e+89,
    1.4508354573669892e+94,
    1.470836560389019e+99,
    1.4911133970375373e+104,
    1.5116697685545397e+109,
    1.5325095285856452e+114,
    1.5536365839025255e+119,
    1.5750548951352982e+124,
    1.5967684775150158e+129,
    1.618781401626388e+134,
    1.6410977941708836e+139,
    1.6637218387403534e+144,
    1.686657776601313e+149,
    Infinity
  ]
}