{
  "lam": 0,
  "learn_rate": 1e-06,
  "epsilon": 0.5,
  "iterations": 19,
  "convergence": false,
  "exploding": true,
  "labeled_weights": [
    "dummy",
    "bathrooms",
    "bedrooms",
    "condition_2",
    "condition_3",
    "condition_4",
    "condition_5",
    "day",
    "floors",
    "grade_10",
    "grade_11",
    "grade_12",
    "grade_13",
    "grade_5",
    "grade_6",
    "grade_7",
    "grade_8",
    "grade_9",
    "lat",
    "long",
    "month",
    "sqft_above",
    "sqft_basement",
    "sqft_living",
    "sqft_living15",
    "sqft_lot",
    "sqft_lot15",
    "view",
    "waterfront_1",
    "year",
    "yr_built",
    "yr_renovated",
    "zipcode"
  ],
  "weights": [
    -2.911733141807723e+146,
    -6.192581739200884e+146,
    -9.837072887686506e+146,
    -2.269240112506156e+144,
    -1.899786244521983e+146,
    -7.50984632975606e+145,
    -2.3446090672741806e+145,
    -4.603941304099504e+147,
    -4.377097920434078e+146,
    -1.656954488901343e+145,
    -6.700317006472839e+144,
    -1.2239223444155603e+144,
    -1.5090201841045946e+143,
    -3.158354724450196e+144,
    -2.7007052974671156e+145,
    -1.1914418857158653e+146,
    -8.199992328726631e+145,
    -3.490022141337391e+145,
    -1.3847716204867993e+148,
    3.5584053596195546e+148,
    -1.9184327000259784e+147,
    -5.279011236158043e+149,
    -8.375462975945141e+148,
    -6.116557533752558e+149,
    -5.847210070904087e+149,
    -5.761539665749831e+150,
    -4.578842947363432e+150,
    -6.919333494291547e+145,
    -2.1253128477657565e+144,
    -5.865158765965669e+149,
    -5.740036334484421e+149,
    -2.3761897219034288e+148,
    -2.8557529143145863e+151
  ],
  "sse": [
    5.5406297485786385e+28,
    5.550821874814709e+44,
    5.698488501756281e+60,
    5.856505398755896e+76,
    6.019198016832772e+92,
    6.186423648221555e+108,
    6.358295764360674e+124,
    6.534942884585127e+140,
    6.716497642706978e+156,
    NaN,
    NaN,
    NaN,
    NaN,
    NaN,
    NaN,
    NaN,
    NaN,
    NaN,
    NaN
  ],
  "gradient_norm_diff": [
    24545593190420.953,
    2.3451861934087943e+21,
    2.3710899388450722e+29,
    2.403510070920048e+37,
    2.4366555463071365e+45,
    2.470270836925757e+53,
    2.5043504468536492e+61,
    2.53890024156524e+69,
    2.5739266833212325e+77,
    2.6094363468028007e+85,
    2.6454358984443e+93,
    2.681932096696955e+101,
    2.718931793253119e+109,
    2.7564419343305806e+117,
    2.7944695619765325e+125,
    2.833021815389626e+133,
    2.872105932260261e+141,
    2.91172925012937e+149,
    Infinity
  ]
}