{
  "lam": 0,
  "learn_rate": 1e-06,
  "epsilon": 0.5,
  "iterations": 19,
  "convergence": false,
  "exploding": true,
  "labeled_weights": [
    "dummy",
    "bathrooms",
    "bedrooms",
    "condition_2",
    "condition_3",
    "condition_4",
    "condition_5",
    "day",
    "floors",
    "grade_10",
    "grade_11",
    "grade_12",
    "grade_13",
    "grade_5",
    "grade_6",
    "grade_7",
    "grade_8",
    "grade_9",
    "lat",
    "long",
    "month",
    "sqft_above",
    "sqft_basement",
    "sqft_living",
    "sqft_living15",
    "sqft_lot",
    "sqft_lot15",
    "view",
    "waterfront_1",
    "year",
    "yr_built",
    "yr_renovated",
    "zipcode"
  ],
  "weights": [
    -1.4943119286513822e+147,
    -3.17805523767589e+147,
    -5.048421212789045e+147,
    -1.1645821934721183e+145,
    -9.749771386379621e+146,
    -3.854080166812966e+146,
    -1.2032618123365923e+146,
    -2.3627592483476919e+148,
    -2.2463424073674006e+147,
    -8.503550076228014e+145,
    -3.438626804343611e+145,
    -6.281213524489769e+144,
    -7.7443458993740215e+143,
    -1.6208790125347295e+145,
    -1.3860116793778798e+146,
    -6.114522641366863e+146,
    -4.2082655775449655e+146,
    -1.7910919246603448e+146,
    -7.106697798777792e+148,
    1.8261864384162867e+149,
    -9.845465667172765e+147,
    -2.7092075672765487e+150,
    -4.29831774527339e+149,
    -3.139039341803888e+150,
    -3.00080925440086e+150,
    -2.956842894118091e+151,
    -2.3498786813323684e+151,
    -3.551026854204311e+146,
    -1.0907182031662186e+145,
    -3.0100205893097186e+150,
    -2.9458073071171693e+150,
    -1.2194691179613377e+149,
    -1.4655826744108377e+152
  ],
  "sse": [
    1.426657073778885e+30,
    1.460478684233285e+46,
    1.5007882164979e+62,
    1.5424711890383359e+78,
    1.5853237981804684e+94,
    1.629367475055816e+110,
    1.6746348041750306e+126,
    1.7211597580938628e+142,
    1.768977275274301e+158,
    NaN,
    NaN,
    NaN,
    NaN,
    NaN,
    NaN,
    NaN,
    NaN,
    NaN,
    NaN
  ],
  "gradient_norm_diff": [
    119549245435620.75,
    1.2006676186010074e+22,
    1.216721383618507e+30,
    1.2334841326277199e+38,
    1.2505001311627566e+46,
    1.2677518728433532e+54,
    1.2852416627577714e+62,
    1.3029727422755213e+70,
    1.3209484382795295e+78,
    1.3391721253901598e+86,
    1.3576472248667314e+94,
    1.3763772051716963e+102,
    1.3953655826182747e+110,
    1.4146159220304388e+118,
    1.4341318374121546e+126,
    1.4539169926258663e+134,
    1.4739751020803382e+142,
    1.4943099314279867e+150,
    Infinity
  ]
}