{
  "lam": 0,
  "learn_rate": 1,
  "epsilon": 0.5,
  "iterations": 34,
  "convergence": false,
  "exploding": true,
  "labeled_weights": [
    "dummy",
    "bathrooms",
    "bedrooms",
    "condition_2",
    "condition_3",
    "condition_4",
    "condition_5",
    "day",
    "floors",
    "grade_10",
    "grade_11",
    "grade_12",
    "grade_13",
    "grade_5",
    "grade_6",
    "grade_7",
    "grade_8",
    "grade_9",
    "lat",
    "long",
    "month",
    "sqft_above",
    "sqft_basement",
    "sqft_living",
    "sqft_living15",
    "sqft_lot",
    "sqft_lot15",
    "view",
    "waterfront_1",
    "year",
    "yr_built",
    "yr_renovated",
    "zipcode"
  ],
  "weights": [
    -6.003724267837267e+154,
    -1.371721726634375e+154,
    -4.484863748280109e+153,
    -3.582608529777402e+152,
    -4.1782115513690266e+154,
    -1.3717956080659158e+154,
    -4.120507295088614e+153,
    -3.024343492675151e+154,
    -1.2835941767728583e+154,
    -3.4005941812861184e+153,
    -1.337111259021532e+153,
    -2.483706973786325e+152,
    -3.43882568381024e+151,
    -4.944156257628249e+152,
    -4.774651021996228e+153,
    -2.4795843405249393e+154,
    -1.7580025441747472e+154,
    -7.321949006381126e+153,
    -3.9537341413598573e+154,
    -1.5223455263893206e+154,
    -3.059571342900871e+154,
    -1.0282008869661304e+154,
    -6.2947380710942456e+153,
    -1.0968061224453864e+154,
    -1.6511283735781723e+154,
    -5.225115305452454e+152,
    -8.301106996948347e+152,
    -3.444223656896441e+153,
    -4.126633302417662e+152,
    -1.941282072397523e+154,
    -3.821290332259131e+154,
    -2.4005060458857905e+153,
    -2.36551921267961e+154
  ],
  "sse": [
    16063772059061.92,
    2.173039061428693e+22,
    2.974220987264096e+31,
    4.0710951328040437e+40,
    5.572493214457694e+49,
    7.627598915578342e+58,
    1.0440616611220424e+68,
    1.4291060191948838e+77,
    1.9561526777107857e+86,
    2.677571325793477e+95,
    3.665045313897212e+104,
    5.016694428836297e+113,
    6.866824510160259e+122,
    9.399272672917232e+131,
    1.2865674177216815e+141,
    1.7610466021615228e+150,
    NaN,
    NaN,
    NaN,
    NaN,
    NaN,
    NaN,
    NaN,
    NaN,
    NaN,
    NaN,
    NaN,
    NaN,
    NaN,
    NaN,
    NaN,
    NaN,
    NaN,
    NaN
  ],
  "gradient_norm_diff": [
    22864.99014479304,
    766730642.3615322,
    28354435863643.92,
    1.049031841633722e+18,
    3.881126577637178e+22,
    1.435909129557999e+27,
    5.31246530553118e+31,
    1.9654647387929093e+36,
    7.27167410470679e+40,
    2.6903176252115264e+45,
    9.953428633220673e+49,
    3.682492380386785e+54,
    1.3624199892634203e+59,
    5.040575880158581e+63,
    1.8648731965076881e+68,
    6.899513313037139e+72,
    2.552628459989798e+77,
    9.444016931509635e+81,
    3.494024187248822e+86,
    1.2926919879132723e+91,
    4.7826016251219674e+95,
    1.7694298810919735e+100,
    6.546399532119322e+104,
    2.4219861601797196e+109,
    8.96067667627223e+113,
    3.315201705807066e+118,
    1.2265326322161543e+123,
    4.537830368679951e+127,
    1.6788713087647447e+132,
    6.211357945081972e+136,
    2.2980300705906682e+141,
    8.502073543387231e+145,
    3.145531273164996e+150,
    Infinity
  ]
}