{
  "lam": 0,
  "learn_rate": 0.01,
  "epsilon": 0.5,
  "iterations": 60,
  "convergence": false,
  "exploding": true,
  "labeled_weights": [
    "dummy",
    "bathrooms",
    "bedrooms",
    "condition_2",
    "condition_3",
    "condition_4",
    "condition_5",
    "day",
    "floors",
    "grade_10",
    "grade_11",
    "grade_12",
    "grade_13",
    "grade_5",
    "grade_6",
    "grade_7",
    "grade_8",
    "grade_9",
    "lat",
    "long",
    "month",
    "sqft_above",
    "sqft_basement",
    "sqft_living",
    "sqft_living15",
    "sqft_lot",
    "sqft_lot15",
    "view",
    "waterfront_1",
    "year",
    "yr_built",
    "yr_renovated",
    "zipcode"
  ],
  "weights": [
    -4.790843926456271e+153,
    -1.0946046836361029e+153,
    -3.578825624044142e+152,
    -2.85884520175298e+151,
    -3.334123710770707e+153,
    -1.0946636394428297e+153,
    -3.2880769448969503e+152,
    -2.4133616080639476e+153,
    -1.024280778311315e+153,
    -2.713601633411777e+152,
    -1.066986268606105e+152,
    -1.981945195952131e+151,
    -2.7441095570764606e+150,
    -3.945331251337057e+151,
    -3.810069688280175e+152,
    -1.9786554225314693e+153,
    -1.4028485379606295e+153,
    -5.842759154507253e+152,
    -3.1549955249327405e+153,
    -1.2147992635407017e+153,
    -2.441472681252323e+153,
    -8.204823797267958e+152,
    -5.023066735108152e+152,
    -8.752278945199488e+152,
    -1.317565229091733e+153,
    -4.169530579587756e+151,
    -6.624106348828011e+151,
    -2.7484170244786104e+152,
    -3.292965368098366e+151,
    -1.5491016927455282e+153,
    -3.0493081898520575e+153,
    -1.915552629883905e+152,
    -1.887633883137038e+153
  ],
  "sse": [
    3971649338.3629966,
    538542922033498.5,
    7.3319399060100006e+19,
    9.982279497093502e+24,
    1.3590663902685104e+30,
    1.8503403546647135e+35,
    2.5191995422207136e+40,
    3.4298372823832834e+45,
    4.669651445417663e+50,
    6.357632396642272e+55,
    8.655783020057904e+60,
    1.178466684073973e+66,
    1.604457646701751e+71,
    2.1844353980041177e+76,
    2.974062928904706e+81,
    4.0491242328186753e+86,
    5.512797625582638e+91,
    7.505558217825802e+96,
    1.0218659923185215e+102,
    1.391249092941702e+107,
    1.8941564286912495e+112,
    2.578854207025e+117,
    3.511055855975732e+122,
    4.780228828058754e+127,
    6.508181181371077e+132,
    8.860752029469978e+137,
    1.206372784342435e+143,
    1.642451216287089e+148,
    2.2361628452629016e+153,
    3.044488762252696e+158,
    NaN,
    NaN,
    NaN,
    NaN,
    NaN,
    NaN,
    NaN,
    NaN,
    NaN,
    NaN,
    NaN,
    NaN,
    NaN,
    NaN,
    NaN,
    NaN,
    NaN,
    NaN,
    NaN,
    NaN,
    NaN,
    NaN,
    NaN,
    NaN,
    NaN,
    NaN,
    NaN,
    NaN,
    NaN,
    NaN
  ],
  "gradient_norm_diff": [
    34044.00998510329,
    12132227.015366796,
    4475797423.7569275,
    1651487357181.4326,
    609369510674636.8,
    2.2484653270972547e+17,
    8.296437940235756e+19,
    3.0612383329553738e+22,
    1.1295426059547312e+25,
    4.167811715056048e+27,
    1.5378485415763597e+30,
    5.67438814062821e+32,
    2.0937484999333595e+35,
    7.725560311226553e+37,
    2.850594621288018e+40,
    1.0518188154078455e+43,
    3.8810247243997124e+45,
    1.4320292326736326e+48,
    5.283933674370037e+50,
    1.9496777326964492e+53,
    7.193964753589684e+55,
    2.654445296675513e+58,
    9.794431963997127e+60,
    3.6139715373872885e+63,
    1.3334913470280833e+66,
    4.920346367432425e+68,
    1.8155204703398498e+71,
    6.698948269251694e+73,
    2.471793000808736e+76,
    9.120477414180043e+78,
    3.365294271621934e+81,
    1.2417338501385422e+84,
    4.581777491442833e+86,
    1.690594564910185e+89,
    6.2379938533501756e+91,
    2.3017090035718794e+94,
    8.49289765535531e+96,
    3.1337284805510477e+99,
    1.1562901836718221e+102,
    4.2665055289688376e+104,
    1.5742648070329077e+107,
    5.808757696046711e+109,
    2.143328480738665e+112,
    7.908501639639698e+114,
    2.918096724148827e+117,
    1.0767258931587019e+120,
    3.972927420137417e+122,
    1.4659396960701935e+125,
    5.409057264982812e+127,
    1.9958461166101322e+130,
    7.364317895052649e+132,
    2.7173025819999408e+135,
    1.0026364189280775e+138,
    3.699550411574081e+140,
    1.3650684325241674e+143,
    5.036860207781693e+145,
    1.858512009234781e+148,
    6.857579416505437e+150,
    2.530325078342731e+153,
    Infinity
  ]
}