{
  "lam": 0,
  "learn_rate": 0.1,
  "epsilon": 0.5,
  "iterations": 44,
  "convergence": false,
  "exploding": true,
  "labeled_weights": [
    "dummy",
    "bathrooms",
    "bedrooms",
    "condition_2",
    "condition_3",
    "condition_4",
    "condition_5",
    "day",
    "floors",
    "grade_10",
    "grade_11",
    "grade_12",
    "grade_13",
    "grade_5",
    "grade_6",
    "grade_7",
    "grade_8",
    "grade_9",
    "lat",
    "long",
    "month",
    "sqft_above",
    "sqft_basement",
    "sqft_living",
    "sqft_living15",
    "sqft_lot",
    "sqft_lot15",
    "view",
    "waterfront_1",
    "year",
    "yr_built",
    "yr_renovated",
    "zipcode"
  ],
  "weights": [
    -2.3872283743044424e+156,
    -5.454302831683978e+155,
    -1.7832920895683365e+155,
    -1.424533232168342e+154,
    -1.6613596368355206e+156,
    -5.454596602420007e+155,
    -1.6384150058422721e+155,
    -1.2025533281124387e+156,
    -5.10388602671114e+155,
    -1.352159852268693e+155,
    -5.316683103249835e+154,
    -9.875829563066215e+153,
    -1.3673616376182977e+153,
    -1.9659180832861224e+154,
    -1.8985186342038807e+155,
    -9.859436959643111e+155,
    -6.990250331841371e+155,
    -2.9113869397502816e+155,
    -1.5721018996947539e+156,
    -6.05322009133702e+155,
    -1.2165607874614805e+156,
    -4.088379516361013e+155,
    -2.502942617240447e+155,
    -4.361170799663762e+155,
    -6.565292353848981e+155,
    -2.0776343082594448e+154,
    -3.300724230027109e+154,
    -1.3695080044300025e+155,
    -1.6408508569681218e+154,
    -7.719014796502829e+155,
    -1.5194389849802994e+156,
    -9.545002218251856e+154,
    -9.405885967686707e+155
  ],
  "sse": [
    113097329371.80682,
    1.5189327048770542e+18,
    2.077787924859842e+25,
    2.842676981547051e+32,
    3.8891481312765276e+39,
    5.320855502471004e+46,
    7.27961556840435e+53,
    9.95945159557223e+60,
    1.3625812400735328e+68,
    1.8641866150800398e+75,
    2.550447366834459e+82,
    3.4893404546376606e+89,
    4.773867113157791e+96,
    6.531265008491734e+103,
    8.935611654035269e+110,
    1.2225067506511955e+118,
    1.6725466741975345e+125,
    2.2882592475494774e+132,
    3.130633341821633e+139,
    4.283109587089416e+146,
    5.859845511114032e+153,
    NaN,
    NaN,
    NaN,
    NaN,
    NaN,
    NaN,
    NaN,
    NaN,
    NaN,
    NaN,
    NaN,
    NaN,
    NaN,
    NaN,
    NaN,
    NaN,
    NaN,
    NaN,
    NaN,
    NaN,
    NaN,
    NaN,
    NaN
  ],
  "gradient_norm_diff": [
    19903.719503137625,
    64153943.4413401,
    237108948479.51697,
    877017263470350.1,
    3.2439309064605676e+18,
    1.1998724592871965e+22,
    4.438115241941374e+25,
    1.641580048656935e+29,
    6.0719132091985004e+32,
    2.2458929158040814e+36,
    8.307159235441012e+39,
    3.0726707438883437e+43,
    1.1365263663260124e+47,
    4.20380928846162e+50,
    1.554914435543062e+54,
    5.7513524899817134e+57,
    2.1273231959201776e+61,
    7.868590888461484e+64,
    2.9104520972046174e+68,
    1.0765245684007093e+72,
    3.981873288632442e+75,
    1.4728242487098343e+79,
    5.447715460410081e+82,
    2.0150132484298803e+86,
    7.453176328416937e+89,
    2.756797625313858e+93,
    1.0196905067118359e+97,
    3.771654182848711e+100,
    1.3950679330017793e+104,
    5.1601086508410775e+107,
    1.908632594772069e+111,
    7.059693173771806e+114,
    2.611255190984104e+118,
    9.658569437230093e+121,
    3.5725333891490624e+125,
    1.3214166859316062e+129,
    4.8876857614880974e+132,
    1.80786820367803e+136,
    6.686983577428143e+139,
    2.4733965271263363e+143,
    9.148654710400121e+146,
    3.383924983001772e+150,
    1.2516537844155594e+154,
    Infinity
  ]
}