{
  "lam": 0,
  "learn_rate": 1,
  "epsilon": 0.5,
  "iterations": 34,
  "convergence": false,
  "exploding": true,
  "labeled_weights": [
    "dummy",
    "bathrooms",
    "bedrooms",
    "condition_2",
    "condition_3",
    "condition_4",
    "condition_5",
    "day",
    "floors",
    "grade_10",
    "grade_11",
    "grade_12",
    "grade_13",
    "grade_5",
    "grade_6",
    "grade_7",
    "grade_8",
    "grade_9",
    "lat",
    "long",
    "month",
    "sqft_above",
    "sqft_basement",
    "sqft_living",
    "sqft_living15",
    "sqft_lot",
    "sqft_lot15",
    "view",
    "waterfront_1",
    "year",
    "yr_built",
    "yr_renovated",
    "zipcode"
  ],
  "weights": [
    -6.864966137426405e+154,
    -1.568496950095496e+154,
    -5.128223147730466e+153,
    -4.0965382724740925e+152,
    -4.777581303793763e+154,
    -1.5685814299122035e+154,
    -4.711599298678609e+153,
    -3.4581894069295696e+154,
    -1.467727391304348e+154,
    -3.8884137345748016e+153,
    -1.5289215669561481e+153,
    -2.839997892920404e+152,
    -3.9321295946813446e+151,
    -5.653401750741893e+152,
    -5.459580773825262e+153,
    -2.835283862682864e+154,
    -2.0101902414010455e+154,
    -8.372291888560765e+153,
    -4.5209023242833893e+154,
    -1.7407279251833453e+154,
    -3.498470737001546e+154,
    -1.175697609783302e+154,
    -7.197726240282112e+153,
    -1.2541443534051437e+154,
    -1.8879848353264394e+154,
    -5.974664730730737e+152,
    -9.49191133618338e+152,
    -3.938301913860963e+153,
    -4.718604089537649e+152,
    -2.2197614506708027e+154,
    -4.369459282593572e+154,
    -2.7448616862662342e+153,
    -2.704855947411285e+154
  ],
  "sse": [
    20905177631179.977,
    2.8411065395217175e+22,
    3.8887356166413524e+31,
    5.322878730581572e+40,
    7.285927921164205e+49,
    9.972939180619424e+58,
    1.3650905825586135e+68,
    1.86852869033061e+77,
    2.557632080388853e+86,
    3.500873116096924e+95,
    4.7919764023083514e+104,
    6.559231677005531e+113,
    8.978241247579603e+122,
    1.228936861345016e+132,
    1.682162204741032e+141,
    2.3025346314067273e+150,
    NaN,
    NaN,
    NaN,
    NaN,
    NaN,
    NaN,
    NaN,
    NaN,
    NaN,
    NaN,
    NaN,
    NaN,
    NaN,
    NaN,
    NaN,
    NaN,
    NaN,
    NaN
  ],
  "gradient_norm_diff": [
    25294.524641209435,
    876548963.9507204,
    32421861798371.027,
    1.1995167727278986e+18,
    4.437879112661082e+22,
    1.641892117469235e+27,
    6.074545199235326e+31,
    2.247413151267107e+36,
    8.314804988403523e+40,
    3.076247104641209e+45,
    1.1381260609252624e+50,
    4.210750588283225e+54,
    1.5578608666875813e+59,
    5.76365289055525e+63,
    2.1323916245126315e+68,
    7.88925725860908e+72,
    2.918806253834418e+77,
    1.0798773152093833e+82,
    3.995246393527768e+86,
    1.4781302950050103e+91,
    5.46867190106485e+95,
    2.023256844309173e+100,
    7.485488857444202e+104,
    2.7694231502304994e+109,
    1.024609712351014e+114,
    3.7907716000592063e+118,
    1.402480295725767e+123,
    5.1887878970822575e+127,
    1.9197075297927598e+132,
    7.102385129319533e+136,
    2.6276854021937836e+141,
    9.721706788890845e+145,
    3.5967617284116726e+150,
    Infinity
  ]
}