{
  "lam": 0,
  "learn_rate": 1,
  "epsilon": 0.5,
  "iterations": 34,
  "convergence": false,
  "exploding": true,
  "labeled_weights": [
    "dummy",
    "bathrooms",
    "bedrooms",
    "condition_2",
    "condition_3",
    "condition_4",
    "condition_5",
    "day",
    "floors",
    "grade_10",
    "grade_11",
    "grade_12",
    "grade_13",
    "grade_5",
    "grade_6",
    "grade_7",
    "grade_8",
    "grade_9",
    "lat",
    "long",
    "month",
    "sqft_above",
    "sqft_basement",
    "sqft_living",
    "sqft_living15",
    "sqft_lot",
    "sqft_lot15",
    "view",
    "waterfront_1",
    "year",
    "yr_built",
    "yr_renovated",
    "zipcode"
  ],
  "weights": [
    -1.0444227925568062e+155,
    -2.3862812021818697e+154,
    -7.801980422899832e+153,
    -6.232394824247732e+152,
    -7.268520641015269e+154,
    -2.386409728156091e+154,
    -7.168136882870904e+153,
    -5.261223093126242e+154,
    -2.2329723265217443e+154,
    -5.9157581406560755e+153,
    -2.326071972671529e+153,
    -4.320718370347784e+152,
    -5.982266612478797e+151,
    -8.600977085327516e+152,
    -8.30610156531039e+153,
    -4.3135465350811145e+154,
    -3.058264911240471e+154,
    -1.273744443789701e+154,
    -6.878014160423427e+154,
    -2.648310107153962e+154,
    -5.3225063367715624e+154,
    -1.7886838131915e+154,
    -1.0950482769246486e+154,
    -1.908031185633496e+154,
    -2.872343948306447e+154,
    -9.089740426599957e+152,
    -1.4440812009824029e+153,
    -5.991657060596211e+153,
    -7.178793837448422e+152,
    -3.3771025329320506e+154,
    -6.64761161895616e+154,
    -4.175979968674823e+153,
    -4.115116004225833e+154
  ],
  "sse": [
    48132945568409.43,
    6.575807474096868e+22,
    9.00086353465853e+31,
    1.2320333212179943e+41,
    1.6864006216124092e+50,
    2.308336153745665e+59,
    3.159638184681249e+68,
    4.3248958527537983e+77,
    5.919894318233186e+86,
    8.103119689399018e+95,
    1.1091506903846666e+105,
    1.5181995344215585e+114,
    2.0781034049742093e+123,
    2.8444968292067976e+132,
    3.893532050426502e+141,
    5.3294458520897054e+150,
    NaN,
    NaN,
    NaN,
    NaN,
    NaN,
    NaN,
    NaN,
    NaN,
    NaN,
    NaN,
    NaN,
    NaN,
    NaN,
    NaN,
    NaN,
    NaN,
    NaN,
    NaN
  ],
  "gradient_norm_diff": [
    36919.717713851605,
    1333303400.862505,
    49325925423233.375,
    1.8249218056340541e+18,
    6.751704236279535e+22,
    2.4979432033211793e+27,
    9.241696657335906e+31,
    3.419171300319391e+36,
    1.2649984969640744e+41,
    4.680143393727854e+45,
    1.7315231787565146e+50,
    6.406155252826439e+54,
    2.370099668708312e+59,
    8.768711056655746e+63,
    3.24417975371565e+68,
    1.2002564808461709e+73,
    4.440615900408284e+77,
    1.6429046532668664e+82,
    6.078291300712938e+86,
    2.2487991048572002e+91,
    8.319932632076032e+95,
    3.0781441905047002e+100,
    1.1388279300494281e+105,
    4.213347309269542e+109,
    1.558821581391878e+114,
    5.767207268356774e+118,
    2.1337066456629764e+123,
    7.894122471938715e+127,
    2.920606247753654e+132,
    1.080543263008537e+137,
    3.997710215579935e+141,
    1.4790418407917001e+146,
    5.4720443675159135e+150,
    Infinity
  ]
}