{
  "lam": 0,
  "learn_rate": 0.01,
  "epsilon": 0.5,
  "iterations": 60,
  "convergence": false,
  "exploding": true,
  "labeled_weights": [
    "dummy",
    "bathrooms",
    "bedrooms",
    "condition_2",
    "condition_3",
    "condition_4",
    "condition_5",
    "day",
    "floors",
    "grade_10",
    "grade_11",
    "grade_12",
    "grade_13",
    "grade_5",
    "grade_6",
    "grade_7",
    "grade_8",
    "grade_9",
    "lat",
    "long",
    "month",
    "sqft_above",
    "sqft_basement",
    "sqft_living",
    "sqft_living15",
    "sqft_lot",
    "sqft_lot15",
    "view",
    "waterfront_1",
    "year",
    "yr_built",
    "yr_renovated",
    "zipcode"
  ],
  "weights": [
    -6.12024956848892e+153,
    -1.3983452488808513e+153,
    -4.571909733960977e+152,
    -3.6521427917497413e+151,
    -4.259305774802588e+153,
    -1.3984205642649922e+153,
    -4.200481546066414e+152,
    -3.0830424800096903e+153,
    -1.3085072458430756e+153,
    -3.466595756590204e+152,
    -1.3630630323727628e+152,
    -2.5319128355047736e+151,
    -3.505569288082886e+150,
    -5.040116576371604e+151,
    -4.867321441393297e+152,
    -2.527710186729879e+153,
    -1.792123327519804e+153,
    -7.4640595150024675e+152,
    -4.030471519521401e+153,
    -1.5518924812867209e+153,
    -3.118954061808636e+153,
    -1.048157069518662e+153,
    -6.416911610973e+152,
    -1.1180938527729093e+153,
    -1.683174853656609e+153,
    -5.32652871232211e+151,
    -8.462221822581303e+151,
    -3.511072029544303e+152,
    -4.206726452068014e+151,
    -1.9789600980769526e+153,
    -3.8954571302297106e+153,
    -2.4470970744264335e+152,
    -2.4114311875068697e+153
  ],
  "sse": [
    6469781914.175843,
    878878948126445.0,
    1.196556098598767e+20,
    1.6290857442576766e+25,
    2.2179660318311714e+30,
    3.019714182773933e+35,
    4.1112774564444774e+40,
    5.597417934549583e+45,
    7.620766991754713e+50,
    1.0375514249909538e+56,
    1.412604480186168e+61,
    1.923231340036393e+66,
    2.6184390883503077e+71,
    3.5649498407565585e+76,
    4.853604356753247e+81,
    6.608080423060026e+86,
    8.996762749495989e+91,
    1.224890358299194e+97,
    1.667662504425131e+102,
    2.270487484714275e+107,
    3.091221038168761e+112,
    4.2086325386724755e+117,
    5.729964834887933e+122,
    7.801226813545597e+127,
    1.0621206508254802e+133,
    1.446054965292351e+138,
    1.968773473165668e+143,
    2.6804437463808187e+148,
    3.649367880784848e+153,
    NaN,
    NaN,
    NaN,
    NaN,
    NaN,
    NaN,
    NaN,
    NaN,
    NaN,
    NaN,
    NaN,
    NaN,
    NaN,
    NaN,
    NaN,
    NaN,
    NaN,
    NaN,
    NaN,
    NaN,
    NaN,
    NaN,
    NaN,
    NaN,
    NaN,
    NaN,
    NaN,
    NaN,
    NaN,
    NaN,
    NaN
  ],
  "gradient_norm_diff": [
    42808.92427418624,
    15497566.438488182,
    5717777519.583922,
    2109756626878.663,
    778462738874865.9,
    2.8723893241285677e+17,
    1.0598606738850949e+20,
    3.910697754700249e+22,
    1.4429780541395798e+25,
    5.324332882094709e+27,
    1.9645843232355066e+30,
    7.248967426665228e+32,
    2.674740306708347e+35,
    9.869316948526358e+37,
    3.6416027674230006e+40,
    1.3436867804395488e+43,
    4.957965706967176e+45,
    1.8294013388612353e+48,
    6.7501662101541376e+50,
    2.490691511851073e+53,
    9.190209565321694e+55,
    3.391024197603661e+58,
    1.2512277361034305e+61,
    4.6168082454287995e+63,
    1.7035202913130905e+66,
    6.285687489379162e+68,
    2.3193071086745388e+71,
    8.557831539409782e+73,
    3.157687931149866e+76,
    1.1651307956474683e+79,
    4.299125817894743e+81,
    1.5863011146159214e+84,
    5.853169534507733e+86,
    2.159715660792716e+89,
    7.968967425211619e+91,
    2.9404075257191413e+94,
    1.0849581829073877e+97,
    4.003303108026859e+99,
    1.4771477857138326e+102,
    5.450413126261434e+104,
    2.011105695329395e+107,
    7.420623031855529e+109,
    2.738078178028612e+112,
    1.0103022450827607e+115,
    3.727835949352504e+117,
    1.3755052938783196e+120,
    5.0753703735699794e+122,
    1.872721576830995e+125,
    6.910010198647845e+127,
    2.54967110627392e+130,
    9.40783379949303e+132,
    3.4713236770458514e+135,
    1.2808568186513339e+138,
    4.726134300682055e+140,
    1.7438596650952992e+143,
    6.434532618142949e+145,
    2.3742283190937233e+148,
    8.760481056996293e+150,
    3.2324620059828925e+153,
    Infinity
  ]
}